<?xml version="1.0"?>
<opencv_storage>
<cascade>
  <stageType>BOOST</stageType>
  <featureType>LBP</featureType>
  <height>24</height>
  <width>30</width>
  <stageParams>
    <boostType>GAB</boostType>
    <minHitRate>9.9500000476837158e-01</minHitRate>
    <maxFalseAlarm>4.0000000596046448e-01</maxFalseAlarm>
    <weightTrimRate>9.4999999999999996e-01</weightTrimRate>
    <maxDepth>1</maxDepth>
    <maxWeakCount>100</maxWeakCount></stageParams>
  <featureParams>
    <maxCatCount>256</maxCatCount>
    <featSize>1</featSize></featureParams>
  <stageNum>16</stageNum>
  <stages>
    <!-- stage 0 -->
    <_>
      <maxWeakCount>10</maxWeakCount>
      <stageThreshold>-1.9964492321014404e+00</stageThreshold>
      <weakClassifiers>
        <_>
          <internalNodes>
            0 -1 212 -196611 -139265 -131073 -131073 -212996 -197896
            -147460 -539230128</internalNodes>
          <leafValues>
            -7.6329058408737183e-01 3.4739106893539429e-01</leafValues></_>
        <_>
          <internalNodes>
            0 -1 92 -591873 -1 -65537 -67620 2001741564 -102475 -630785
            2146719056</internalNodes>
          <leafValues>
            -6.1305809020996094e-01 3.6621049046516418e-01</leafValues></_>
        <_>
          <internalNodes>
            0 -1 539 -1107296769 14509565 -1074266625 16775167
            -1073741827 217055229 -1342312708 16506877</internalNodes>
          <leafValues>
            -5.2113240957260132e-01 3.4189456701278687e-01</leafValues></_>
        <_>
          <internalNodes>
            0 -1 12 -496829454 -349192 1608546293 925903152 -357404163
            -4423685 -810516545 2138130272</internalNodes>
          <leafValues>
            -5.0917643308639526e-01 3.3810374140739441e-01</leafValues></_>
        <_>
          <internalNodes>
            0 -1 361 896538589 -1078577155 1006075901 -32772 502607869
            -196611 268385787 -1356329464</internalNodes>
          <leafValues>
            -3.8005480170249939e-01 4.3783175945281982e-01</leafValues></_>
        <_>
          <internalNodes>
            0 -1 24 -294461518 -551489728 -1475318796 -5188528
            -366936324 -71106591 -336528428 -13404303</internalNodes>
          <leafValues>
            -4.4604092836380005e-01 3.7066587805747986e-01</leafValues></_>
        <_>
          <internalNodes>
            0 -1 324 -799015908 1027331637 -1350298372 -1075839009
            -53106468 1040181725 673986748 549453567</internalNodes>
          <leafValues>
            -4.4710621237754822e-01 3.2743752002716064e-01</leafValues></_>
        <_>
          <internalNodes>
            0 -1 419 -1808786319 -1078717571 1574910973 -1107479555
            1807249405 -1074775115 -1079230465 -1367315956</internalNodes>
          <leafValues>
            -4.0712413191795349e-01 3.4784817695617676e-01</leafValues></_>
        <_>
          <internalNodes>
            0 -1 109 -1049225 -9863305 -1075922049 -43860041 -698540
            -4227260 -269336816 -13142157</internalNodes>
          <leafValues>
            -2.7396366000175476e-01 5.0583761930465698e-01</leafValues></_>
        <_>
          <internalNodes>
            0 -1 394 357850461 2013255605 -538968131 -131617 2077520125
            -12734479 -1076020225 -1901589928</internalNodes>
          <leafValues>
            -3.6800748109817505e-01 3.4517195820808411e-01</leafValues></_></weakClassifiers></_>
    <!-- stage 1 -->
    <_>
      <maxWeakCount>13</maxWeakCount>
      <stageThreshold>-1.7833549976348877e+00</stageThreshold>
      <weakClassifiers>
        <_>
          <internalNodes>
            0 -1 568 -50332420 -589441584 -192881548 -654509924
            -926103300 -124989336 -938684164 -385943297</internalNodes>
          <leafValues>
            -6.7389357089996338e-01 2.2483576834201813e-01</leafValues></_>
        <_>
          <internalNodes>
            0 -1 101 -9 -327817 -578947085 -7144080 -718243980 -1698479
            -134778512 -135826064</internalNodes>
          <leafValues>
            -5.1274758577346802e-01 3.6404877901077271e-01</leafValues></_>
        <_>
          <internalNodes>
            0 -1 134 -408223758 -6123616 -1683457 -16774624 -270868481
            -73797 -808514321 -940095629</internalNodes>
          <leafValues>
            -3.6297318339347839e-01 4.6398806571960449e-01</leafValues></_>
        <_>
          <internalNodes>
            0 -1 622 -1360081921 960510 -1795690753 -1361122050
            -1090535425 -1460749155 -33562883 -319827969</internalNodes>
          <leafValues>
            -3.2411521673202515e-01 4.6598896384239197e-01</leafValues></_>
        <_>
          <internalNodes>
            0 -1 480 -2110452 -585107625 1033673791 -1143211489
            204341256 -1138872819 1026186 -1464890353</internalNodes>
          <leafValues>
            -3.5516318678855896e-01 3.9515382051467896e-01</leafValues></_>
        <_>
          <internalNodes>
            0 -1 72 -111542276 -214054 -574758920 -131075 -101582884
            1759833236 -918532 1442152308</internalNodes>
          <leafValues>
            -5.6202512979507446e-01 2.5550851225852966e-01</leafValues></_>
        <_>
          <internalNodes>
            0 -1 311 269759988 -106532 -1411559427 -1073889359
            1442660349 -35819522 -4898819 -273082880</internalNodes>
          <leafValues>
            -4.2572361230850220e-01 2.9667845368385315e-01</leafValues></_>
        <_>
          <internalNodes>
            0 -1 142 -907885280 -1048015006 -1089206733 -14614016
            1409369137 2047042456 -314171548 -8953293</internalNodes>
          <leafValues>
            -4.0951493382453918e-01 2.9797530174255371e-01</leafValues></_>
        <_>
          <internalNodes>
            0 -1 344 -1319281420 278436080 -139233795 534232539
            -148930563 1050778045 -2768900 145289080</internalNodes>
          <leafValues>
            -5.0530129671096802e-01 2.4790507555007935e-01</leafValues></_>
        <_>
          <internalNodes>
            0 -1 300 -1527726124 -33623875 -279361089 -1086327727
            -1373733923 -1143089673 -1362348033 -1896610799</internalNodes>
          <leafValues>
            -3.6585485935211182e-01 2.9506185650825500e-01</leafValues></_>
        <_>
          <internalNodes>
            0 -1 122 -228624385 -262154 -16548 -780206090 1867986769
            -67217611 -277515948 -4233</internalNodes>
          <leafValues>
            -2.5959965586662292e-01 4.3965351581573486e-01</leafValues></_>
        <_>
          <internalNodes>
            0 -1 319 -564656140 -2710107 -1074733057 -407231588
            224943037 -576967683 -71585795 -1370747120</internalNodes>
          <leafValues>
            -3.7022945284843445e-01 3.0255141854286194e-01</leafValues></_>
        <_>
          <internalNodes>
            0 -1 346 242753365 -1107492875 -1075884035 -1207987267
            -371688811 -1615824005 -1111547969 -1401940208</internalNodes>
          <leafValues>
            -3.9766269922256470e-01 2.5427374243736267e-01</leafValues></_></weakClassifiers></_>
    <!-- stage 2 -->
    <_>
      <maxWeakCount>18</maxWeakCount>
      <stageThreshold>-1.7225043773651123e+00</stageThreshold>
      <weakClassifiers>
        <_>
          <internalNodes>
            0 -1 582 -1 -117448737 -2099201 -50331905 -336592897
            -118490129 -318767876 -385876481</internalNodes>
          <leafValues>
            -4.7244700789451599e-01 3.8886681199073792e-01</leafValues></_>
        <_>
          <internalNodes>
            0 -1 97 -327681 -71681 -4259841 -68610 1026703355 -295437
            2138472447 2138068240</internalNodes>
          <leafValues>
            -5.1920479536056519e-01 2.5642520189285278e-01</leafValues></_>
        <_>
          <internalNodes>
            0 -1 21 -354226190 -9261574 -546095109 320874240 242495461
            -540049418 2142396415 2146654995</internalNodes>
          <leafValues>
            -4.7388306260108948e-01 2.8305536508560181e-01</leafValues></_>
        <_>
          <internalNodes>
            0 -1 399 935326589 91912701 -46834179 769523199 2130137597
            1023398909 -614766084 150919580</internalNodes>
          <leafValues>
            -3.6971744894981384e-01 3.1198889017105103e-01</leafValues></_>
        <_>
          <internalNodes>
            0 -1 479 -4203235 -11141505 -335589761 -6308493 -54617076
            -1098122770 -890468178 -356517269</internalNodes>
          <leafValues>
            -2.6010426878929138e-01 4.6550405025482178e-01</leafValues></_>
        <_>
          <internalNodes>
            0 -1 135 -74276 -539231367 -107560332 -1141506220 -848766468
            -71371163 -203784 -537573932</internalNodes>
          <leafValues>
            -4.8718485236167908e-01 2.2301356494426727e-01</leafValues></_>
        <_>
          <internalNodes>
            0 -1 343 963651413 -33785955 2141584885 -4359587 2071232505
            -99587 2138980351 -1146874112</internalNodes>
          <leafValues>
            -3.4154906868934631e-01 3.0719926953315735e-01</leafValues></_>
        <_>
          <internalNodes>
            0 -1 99 -553648793 -1074334457 -524873 -63766670 540032324
            -612926123 -9994447 -557197</internalNodes>
          <leafValues>
            -2.7699291706085205e-01 3.9344316720962524e-01</leafValues></_>
        <_>
          <internalNodes>
            0 -1 525 -1070160896 841351681 -1936709592 540855950
            -2143747064 -588633948 183338126 -1998595873</internalNodes>
          <leafValues>
            -4.3496003746986389e-01 2.2924990952014923e-01</leafValues></_>
        <_>
          <internalNodes>
            0 -1 249 1089473012 -134463496 -270790657 -2539756
            1556351916 -5841156 -74960917 530579456</internalNodes>
          <leafValues>
            -4.8444095253944397e-01 2.0481507480144501e-01</leafValues></_>
        <_>
          <internalNodes>
            0 -1 363 -189522499 -33821315 -1778551937 -1141043715
            -18318180 -1107820612 -1147532053 -1361572528</internalNodes>
          <leafValues>
            -3.0088931322097778e-01 3.0573403835296631e-01</leafValues></_>
        <_>
          <internalNodes>
            0 -1 415 1064845169 -1117880387 -134381569 -524299
            -1153516547 -3075 -28344321 -1074262000</internalNodes>
          <leafValues>
            -4.1304469108581543e-01 2.1463668346405029e-01</leafValues></_>
        <_>
          <internalNodes>
            0 -1 571 -588788686 -1112249047 -1469829261 -777391066
            -399580120 -60826410 -193003782 -595600673</internalNodes>
          <leafValues>
            -2.3481664061546326e-01 3.8396131992340088e-01</leafValues></_>
        <_>
          <internalNodes>
            0 -1 124 1600549363 -136152353 -604317549 -1078839847
            611349329 2066905777 2004178547 -10004649</internalNodes>
          <leafValues>
            -3.1304907798767090e-01 2.9401847720146179e-01</leafValues></_>
        <_>
          <internalNodes>
            0 -1 42 -288700758 -1901435392 -2136342496 993077264
            1358816949 -1659603735 -459203144 -843359065</internalNodes>
          <leafValues>
            -3.2207885384559631e-01 2.7189043164253235e-01</leafValues></_>
        <_>
          <internalNodes>
            0 -1 347 1060378485 2136406943 -604536835 2136897452
            1047412733 -67276931 972889085 261620240</internalNodes>
          <leafValues>
            -4.4731488823890686e-01 2.0681555569171906e-01</leafValues></_>
        <_>
          <internalNodes>
            0 -1 590 -1368470283 73821103 -1096890436 12508910 419425277
            16497144 -1379941240 15713535</internalNodes>
          <leafValues>
            -4.6532064676284790e-01 1.9434146583080292e-01</leafValues></_>
        <_>
          <internalNodes>
            0 -1 47 2011078608 298905848 1892956668 435551312 1880367584
            1985246836 -404597041 630550724</internalNodes>
          <leafValues>
            -4.7654196619987488e-01 1.8184675276279449e-01</leafValues></_></weakClassifiers></_>
    <!-- stage 3 -->
    <_>
      <maxWeakCount>20</maxWeakCount>
      <stageThreshold>-1.7162377834320068e+00</stageThreshold>
      <weakClassifiers>
        <_>
          <internalNodes>
            0 -1 616 -285216769 1290731454 -151002115 -323034392
            -554705427 -1462965777 -50336260 -855638017</internalNodes>
          <leafValues>
            -5.0595062971115112e-01 2.3049853742122650e-01</leafValues></_>
        <_>
          <internalNodes>
            0 -1 380 -33555436 -172392673 1375189941 -1111638249
            -117589860 -1077974849 -1604321272 -1598030149</internalNodes>
          <leafValues>
            -3.6342501640319824e-01 3.0549818277359009e-01</leafValues></_>
        <_>
          <internalNodes>
            0 -1 438 -4784628 -48959340 -123406337 -34210497 -50406214
            -6497809 -121836358 -127074561</internalNodes>
          <leafValues>
            -3.9688614010810852e-01 2.6473793387413025e-01</leafValues></_>
        <_>
          <internalNodes>
            0 -1 111 -2981897 -134809122 -44335105 -984134 1986025457
            2144823743 1937012735 2004177984</internalNodes>
          <leafValues>
            -4.4628638029098511e-01 2.2349062561988831e-01</leafValues></_>
        <_>
          <internalNodes>
            0 -1 31 -907901790 -1348302326 -956824576 -584645632
            1353990396 -810881097 -206372861 -70293781</internalNodes>
          <leafValues>
            -3.5210597515106201e-01 2.9375064373016357e-01</leafValues></_>
        <_>
          <internalNodes>
            0 -1 376 271596852 -1109803428 2054364671 -1082180739
            2124038141 -246147 520625083 774898192</internalNodes>
          <leafValues>
            -4.8902326822280884e-01 2.1368525922298431e-01</leafValues></_>
        <_>
          <internalNodes>
            0 -1 76 -655206923 -69497097 1544668255 1066209184
            -514846800 -571350339 -537452609 -8960973</internalNodes>
          <leafValues>
            -2.9969269037246704e-01 3.0539008975028992e-01</leafValues></_>
        <_>
          <internalNodes>
            0 -1 497 -570436419 284969205 -1881422850 503312383
            -176193860 1023000654 -1107563012 12308191</internalNodes>
          <leafValues>
            -3.2267603278160095e-01 2.7856045961380005e-01</leafValues></_>
        <_>
          <internalNodes>
            0 -1 400 -1672995468 -1112493187 -1112541699 -1077990659
            -34840899 -69566736 -1449379079 -1432611760</internalNodes>
          <leafValues>
            -3.7292325496673584e-01 2.4712626636028290e-01</leafValues></_>
        <_>
          <internalNodes>
            0 -1 295 -1508880523 -37963783 -163610627 -1111992515
            -272613387 -75820035 -814724423 -1917583344</internalNodes>
          <leafValues>
            -3.8401091098785400e-01 2.1294556558132172e-01</leafValues></_>
        <_>
          <internalNodes>
            0 -1 115 -9 -41190150 1065336507 -54853890 1138849600
            -58757322 -1357483180 -210249902</internalNodes>
          <leafValues>
            -2.5225034356117249e-01 3.2520347833633423e-01</leafValues></_>
        <_>
          <internalNodes>
            0 -1 461 512767421 -1076093955 -69650947 1040036853
            440147453 -38037417 804142077 -2002254828</internalNodes>
          <leafValues>
            -3.6231815814971924e-01 2.1112480759620667e-01</leafValues></_>
        <_>
          <internalNodes>
            0 -1 27 -597625862 -94246 2004000633 2011705024 1219766240
            -369338433 2077981695 2080334371</internalNodes>
          <leafValues>
            -3.0689498782157898e-01 2.6161223649978638e-01</leafValues></_>
        <_>
          <internalNodes>
            0 -1 35 -896865278 4244136 -296091648 -2067344800 1304159524
            1284892670 -428276864 -2065699929</internalNodes>
          <leafValues>
            -4.1953721642494202e-01 1.7882230877876282e-01</leafValues></_>
        <_>
          <internalNodes>
            0 -1 542 -1493176587 606990835 -1592349447 715050686
            1402706172 163118043 -18274264 15394443</internalNodes>
          <leafValues>
            -4.6469444036483765e-01 1.7244176566600800e-01</leafValues></_>
        <_>
          <internalNodes>
            0 -1 354 -1520405131 -1149603876 -67215495 -1113670027
            514670586 -34264731 -1197850709 -1363538912</internalNodes>
          <leafValues>
            -2.9762032628059387e-01 2.6871031522750854e-01</leafValues></_>
        <_>
          <internalNodes>
            0 -1 491 -298852092 270575452 606746557 -1183193922
            -393757780 -1167073189 1244274856 1224730271</internalNodes>
          <leafValues>
            -3.1696319580078125e-01 2.4529349803924561e-01</leafValues></_>
        <_>
          <internalNodes>
            0 -1 432 -146803628 1595375389 -21137540 1035419417
            -926491048 -83968046 617013418 -1427178329</internalNodes>
          <leafValues>
            -2.4354209005832672e-01 3.1733915209770203e-01</leafValues></_>
        <_>
          <internalNodes>
            0 -1 375 925894068 -1235418135 -1209175105 -1714083971
            2133340021 -1090814041 -1136256006 145492024</internalNodes>
          <leafValues>
            -4.4664356112480164e-01 1.7679424583911896e-01</leafValues></_>
        <_>
          <internalNodes>
            0 -1 87 -282593526 -1536512013 -60248836 -1503073614
            -144287808 1467112530 -778994064 -535337118</internalNodes>
          <leafValues>
            -3.3302861452102661e-01 2.2292087972164154e-01</leafValues></_></weakClassifiers></_>
    <!-- stage 4 -->
    <_>
      <maxWeakCount>26</maxWeakCount>
      <stageThreshold>-1.7326946258544922e+00</stageThreshold>
      <weakClassifiers>
        <_>
          <internalNodes>
            0 -1 283 -133121 -4325377 -740958211 -133121 -1179649
            -67123233 -134350849 -147524</internalNodes>
          <leafValues>
            -5.1700145006179810e-01 1.4307266473770142e-01</leafValues></_>
        <_>
          <internalNodes>
            0 -1 585 -1 406548991 -908067011 681508719 -825245187
            -128110654 -327300611 16515071</internalNodes>
          <leafValues>
            -3.6482918262481689e-01 2.5719586014747620e-01</leafValues></_>
        <_>
          <internalNodes>
            0 -1 163 -337444877 -134829646 -40963 1003561728 -290787397
            -1314833 -369156097 2146911091</internalNodes>
          <leafValues>
            -2.9719647765159607e-01 3.0707788467407227e-01</leafValues></_>
        <_>
          <internalNodes>
            0 -1 122 -34821 -1346177 2147441432 -202571782 2069329749
            -143174027 1937204784 -8952719</internalNodes>
          <leafValues>
            -3.2976785302162170e-01 2.6646494865417480e-01</leafValues></_>
        <_>
          <internalNodes>
            0 -1 378 535836661 -1073990147 532021247 -1074432003
            -4702467 -345091 2137733567 722993188</internalNodes>
          <leafValues>
            -4.1245540976524353e-01 2.2347006201744080e-01</leafValues></_>
        <_>
          <internalNodes>
            0 -1 563 -59779840 -1246575360 538985520 1426126880
            1287933028 -728851306 -461586214 -596390785</internalNodes>
          <leafValues>
            -3.1523814797401428e-01 2.6095098257064819e-01</leafValues></_>
        <_>
          <internalNodes>
            0 -1 393 -1797243043 -5227139 1606041597 -2246017
            -1212387339 -211013 -1346093571 -1884807120</internalNodes>
          <leafValues>
            -3.3009204268455505e-01 2.3411065340042114e-01</leafValues></_>
        <_>
          <internalNodes>
            0 -1 364 -38087212 808236150 -1640687107 -1108410693
            -117457491 955381981 874514476 540794811</internalNodes>
          <leafValues>
            -3.4275442361831665e-01 2.2298301756381989e-01</leafValues></_>
        <_>
          <internalNodes>
            0 -1 52 -706543810 -1152074800 -489237513 -67600560
            -1231765256 -100628432 -545999140 -821935</internalNodes>
          <leafValues>
            -3.5096946358680725e-01 2.2064195573329926e-01</leafValues></_>
        <_>
          <internalNodes>
            0 -1 167 -299175950 -604852552 -538278657 -9009488
            -1609164042 -1476427907 1836648409 -6863005</internalNodes>
          <leafValues>
            -2.5570774078369141e-01 2.9040759801864624e-01</leafValues></_>
        <_>
          <internalNodes>
            0 -1 341 -554119467 -1019907 -9125891 -1074784008 1569992701
            -17891595 -1074774021 -1346762736</internalNodes>
          <leafValues>
            -2.3207381367683411e-01 3.0631569027900696e-01</leafValues></_>
        <_>
          <internalNodes>
            0 -1 117 -278725769 -33619977 -269861003 -344660 1953787892
            -688665 2004291583 -567753</internalNodes>
          <leafValues>
            -2.0899929106235504e-01 3.2453468441963196e-01</leafValues></_>
        <_>
          <internalNodes>
            0 -1 238 -1884620931 -144728908 -1344307203 -1116643352
            -1915461891 -3145734 -1073742850 -573635039</internalNodes>
          <leafValues>
            -1.9627735018730164e-01 3.5399633646011353e-01</leafValues></_>
        <_>
          <internalNodes>
            0 -1 612 -930945486 -1260326986 -1934858728 674161572
            1387003988 -1070182412 -1712773120 -2132284029</internalNodes>
          <leafValues>
            -3.0389186739921570e-01 2.3523771762847900e-01</leafValues></_>
        <_>
          <internalNodes>
            0 -1 49 -286340096 80389312 -1647097852 -1684681200
            -252246681 137232825 -262321148 -860128109</internalNodes>
          <leafValues>
            -3.7036865949630737e-01 1.6879498958587646e-01</leafValues></_>
        <_>
          <internalNodes>
            0 -1 220 2057029746 144184260 -715918850 1073180159
            2002251749 13132452 2066578430 541648076</internalNodes>
          <leafValues>
            -4.4541552662849426e-01 1.5058813989162445e-01</leafValues></_>
        <_>
          <internalNodes>
            0 -1 406 -1256161292 -1077379619 -39881793 932449243
            -1221313544 -2053251 -208833575 -1347811576</internalNodes>
          <leafValues>
            -2.7358207106590271e-01 2.4374338984489441e-01</leafValues></_>
        <_>
          <internalNodes>
            0 -1 315 -391715343 -2347779 -302871169 -1074874444
            1341274101 -67117701 -567071041 -1343290110</internalNodes>
          <leafValues>
            -1.9440607726573944e-01 3.2133424282073975e-01</leafValues></_>
        <_>
          <internalNodes>
            0 -1 482 -41949171 2143665179 -1329650627 -1231114373
            1625162248 -1632703220 -1439322966 -88345057</internalNodes>
          <leafValues>
            -2.2655743360519409e-01 2.8415903449058533e-01</leafValues></_>
        <_>
          <internalNodes>
            0 -1 384 -1642321036 804042741 1809660795 534130141
            -1651933507 -40109057 2013017565 -1363276684</internalNodes>
          <leafValues>
            -3.3944723010063171e-01 1.8081496655941010e-01</leafValues></_>
        <_>
          <internalNodes>
            0 -1 445 -1186994176 286368035 2037257655 -1254386449
            769647864 1509273815 622255821 146791631</internalNodes>
          <leafValues>
            -2.9042020440101624e-01 2.0909805595874786e-01</leafValues></_>
        <_>
          <internalNodes>
            0 -1 98 -473128 -11082219 -1644009475 -1376230705 -512467536
            -19763244 1801878023 -818723465</internalNodes>
          <leafValues>
            -2.7084684371948242e-01 2.3527176678180695e-01</leafValues></_>
        <_>
          <internalNodes>
            0 -1 256 -335631375 -1427076391 1564999001 -1163105843
            -397408327 -271257093 -841736453 -1997142960</internalNodes>
          <leafValues>
            -2.6874315738677979e-01 2.4324725568294525e-01</leafValues></_>
        <_>
          <internalNodes>
            0 -1 337 -492901451 -1135806979 -37160001 -1149322448
            1792572661 -26824963 -380080193 -1416679913</internalNodes>
          <leafValues>
            -1.9587753713130951e-01 3.2508900761604309e-01</leafValues></_>
        <_>
          <internalNodes>
            0 -1 203 -427036438 1659555556 -621812848 -1851280062
            449451876 -1941723668 -693864015 -716705661</internalNodes>
          <leafValues>
            -2.1918779611587524e-01 2.8956925868988037e-01</leafValues></_>
        <_>
          <internalNodes>
            0 -1 498 440399376 888457273 -812253252 683485901 -8558593
            700857077 -43966564 15460335</internalNodes>
          <leafValues>
            -3.9211425185203552e-01 1.5326087176799774e-01</leafValues></_></weakClassifiers></_>
    <!-- stage 5 -->
    <_>
      <maxWeakCount>31</maxWeakCount>
      <stageThreshold>-1.5707167387008667e+00</stageThreshold>
      <weakClassifiers>
        <_>
          <internalNodes>
            0 -1 74 -2125 -4984317 -795675278 -14621424 -874461264
            -1618288751 -644687120 -12323021</internalNodes>
          <leafValues>
            -4.5507246255874634e-01 1.9541734457015991e-01</leafValues></_>
        <_>
          <internalNodes>
            0 -1 11 -355816462 -671285898 -948244483 -34094016
            -872494081 -70210 -814805249 -805353865</internalNodes>
          <leafValues>
            -2.4555888772010803e-01 3.6467096209526062e-01</leafValues></_>
        <_>
          <internalNodes>
            0 -1 588 -134479873 484005631 -1111256097 675253719
            -1209029377 956005261 -319828483 16775679</internalNodes>
          <leafValues>
            -3.2791420817375183e-01 2.5747829675674438e-01</leafValues></_>
        <_>
          <internalNodes>
            0 -1 128 1538422704 1040150992 -40051233 -1074039372
            72359792 1064593393 2076063615 1935963920</internalNodes>
          <leafValues>
            -4.6154043078422546e-01 1.6686958074569702e-01</leafValues></_>
        <_>
          <internalNodes>
            0 -1 25 -853049214 184549890 -418185197 -541129470
            1306469631 -1420916802 1606885562 -808753249</internalNodes>
          <leafValues>
            -2.7464681863784790e-01 2.8771290183067322e-01</leafValues></_>
        <_>
          <internalNodes>
            0 -1 522 -695220190 2134361248 1409827856 1359066674
            -587557880 -55916409 150924986 -51384673</internalNodes>
          <leafValues>
            -2.5855040550231934e-01 2.7601405978202820e-01</leafValues></_>
        <_>
          <internalNodes>
            0 -1 452 -1646318091 286864593 -745349636 1035859381
            -69547012 950828221 -52570660 3467448</internalNodes>
          <leafValues>
            -4.9353361129760742e-01 1.5521217882633209e-01</leafValues></_>
        <_>
          <internalNodes>
            0 -1 57 1207848784 -68617 -579187905 -137358704 2138312128
            -1074781967 -272158725 790823680</internalNodes>
          <leafValues>
            -3.7206807732582092e-01 1.8415337800979614e-01</leafValues></_>
        <_>
          <internalNodes>
            0 -1 381 -50862764 -585115834 -546222211 -1107568773
            -559566532 -71702003 5316792 537383323</internalNodes>
          <leafValues>
            -3.4852772951126099e-01 1.7933842539787292e-01</leafValues></_>
        <_>
          <internalNodes>
            0 -1 372 745551668 1597806557 -748856323 -1084743691
            956575741 -4428803 128663545 405800960</internalNodes>
          <leafValues>
            -5.0326764583587646e-01 1.2299276888370514e-01</leafValues></_>
        <_>
          <internalNodes>
            0 -1 60 -806687198 -511552800 -1384496336 -81661488
            -257158738 -1968741834 719669644 -386141385</internalNodes>
          <leafValues>
            -2.6101055741310120e-01 2.4255968630313873e-01</leafValues></_>
        <_>
          <internalNodes>
            0 -1 340 -176163531 806670388 -1347436625 -1185811107
            -46285315 -1124548811 926219467 -2003831125</internalNodes>
          <leafValues>
            -1.5975426137447357e-01 3.4565374255180359e-01</leafValues></_>
        <_>
          <internalNodes>
            0 -1 116 -42285193 -134746113 -8388737 -164331850 2000185329
            -17312907 -201894751 -211337161</internalNodes>
          <leafValues>
            -2.3597098886966705e-01 2.5026389956474304e-01</leafValues></_>
        <_>
          <internalNodes>
            0 -1 304 -1950826640 -1617780867 -1076168355 -1107978283
            1723481589 -1110004289 -75547777 -1360133103</internalNodes>
          <leafValues>
            -3.0781477689743042e-01 1.8710294365882874e-01</leafValues></_>
        <_>
          <internalNodes>
            0 -1 133 -534579806 -108879838 -1628447817 -41178240
            -1047640901 -302074122 1277809099 -907558830</internalNodes>
          <leafValues>
            -2.1368929743766785e-01 2.6360672712326050e-01</leafValues></_>
        <_>
          <internalNodes>
            0 -1 359 782243316 -2220069 -1794793479 1070399446
            1610170297 -5737541 468464607 251397928</internalNodes>
          <leafValues>
            -4.3193900585174561e-01 1.2056712061166763e-01</leafValues></_>
        <_>
          <internalNodes>
            0 -1 102 -419505217 -320185997 -1662986821 -1898800014
            -949730959 1865087731 389157424 -274242266</internalNodes>
          <leafValues>
            -3.0008441209793091e-01 1.8882840871810913e-01</leafValues></_>
        <_>
          <internalNodes>
            0 -1 289 -587434160 1004232063 -204834081 -1074586273
            283007909 -336633923 -1409778437 -1931342831</internalNodes>
          <leafValues>
            -3.0269214510917664e-01 1.9045387208461761e-01</leafValues></_>
        <_>
          <internalNodes>
            0 -1 59 -496328206 411099072 -1380821859 2098276480
            1697663228 -18099470 1804625596 -688439102</internalNodes>
          <leafValues>
            -2.1732757985591888e-01 2.5376695394515991e-01</leafValues></_>
        <_>
          <internalNodes>
            0 -1 434 1850191876 805490719 -1108044066 -235741581
            -2021809992 -74198597 406632894 271957530</internalNodes>
          <leafValues>
            -3.5623627901077271e-01 1.4529767632484436e-01</leafValues></_>
        <_>
          <internalNodes>
            0 -1 261 1155534544 -139068739 -396512496 1893547254
            -1887618164 -1149594881 -76021828 -811854904</internalNodes>
          <leafValues>
            -4.9121469259262085e-01 1.1444885283708572e-01</leafValues></_>
        <_>
          <internalNodes>
            0 -1 46 516751348 -2687504 -73773221 2109815584 82905568
            2101066482 -93887749 457598724</internalNodes>
          <leafValues>
            -3.3710286021232605e-01 1.6280405223369598e-01</leafValues></_>
        <_>
          <internalNodes>
            0 -1 280 657336828 -53208107 -1223409731 -1074250384
            -355648515 -1427049537 -6394472 -544330375</internalNodes>
          <leafValues>
            -2.6586538553237915e-01 2.0640480518341064e-01</leafValues></_>
        <_>
          <internalNodes>
            0 -1 581 -989876427 -198838684 -54641092 -1676432214
            -864575817 -646516865 -1527846816 -1057491469</internalNodes>
          <leafValues>
            -2.2961112856864929e-01 2.4812692403793335e-01</leafValues></_>
        <_>
          <internalNodes>
            0 -1 172 -34879510 -2105023574 283485808 -202912109
            -354507617 -1065913395 -1848074112 -504365918</internalNodes>
          <leafValues>
            -1.8147911131381989e-01 3.0921688675880432e-01</leafValues></_>
        <_>
          <internalNodes>
            0 -1 465 -813726628 -1655407578 989830175 930724637
            -92306296 -1416667425 -1195603832 -1430258149</internalNodes>
          <leafValues>
            -2.2459030151367188e-01 2.4933554232120514e-01</leafValues></_>
        <_>
          <internalNodes>
            0 -1 272 -118030443 -672872650 939218409 -1149456523
            -999553636 -1219547145 -482259205 -268740753</internalNodes>
          <leafValues>
            -1.3733895123004913e-01 3.7540212273597717e-01</leafValues></_>
        <_>
          <internalNodes>
            0 -1 70 -18185726 -84466426 559287999 -1278532543
            -1049360000 -860728315 -815424609 -783866589</internalNodes>
          <leafValues>
            -2.5430434942245483e-01 2.0926617085933685e-01</leafValues></_>
        <_>
          <internalNodes>
            0 -1 355 -1359721099 -1212491585 -278931969 -1079726393
            -57426513 -1144284649 -26845963 -1344659456</internalNodes>
          <leafValues>
            -2.4174582958221436e-01 2.2454103827476501e-01</leafValues></_>
        <_>
          <internalNodes>
            0 -1 43 -378869661 140763054 -495759616 -352124656
            -559765212 1140934371 1648846272 1105719251</internalNodes>
          <leafValues>
            -3.2991966605186462e-01 1.6618709266185760e-01</leafValues></_>
        <_>
          <internalNodes>
            0 -1 558 -420240336 1092534379 348148985 -1298946972
            -1468022772 1580691784 1753663690 1601431111</internalNodes>
          <leafValues>
            -2.4780094623565674e-01 2.1891109645366669e-01</leafValues></_></weakClassifiers></_>
    <!-- stage 6 -->
    <_>
      <maxWeakCount>35</maxWeakCount>
      <stageThreshold>-1.5304491519927979e+00</stageThreshold>
      <weakClassifiers>
        <_>
          <internalNodes>
            0 -1 104 -1 -14951489 -33562693 -599177 -42477616 -80811241
            -1607948 -527517</internalNodes>
          <leafValues>
            -4.4119060039520264e-01 1.7162320017814636e-01</leafValues></_>
        <_>
          <internalNodes>
            0 -1 210 -704774153 -69404769 -67117057 -3077 -69347332
            -71435363 -67245123 -539161912</internalNodes>
          <leafValues>
            -3.0111435055732727e-01 2.3484890162944794e-01</leafValues></_>
        <_>
          <internalNodes>
            0 -1 348 -1363659012 -1644171267 1069260799 -1073773067
            -1108054275 -4213077 -268558407 -1427371752</internalNodes>
          <leafValues>
            -3.2025623321533203e-01 2.1571344137191772e-01</leafValues></_>
        <_>
          <internalNodes>
            0 -1 622 -1344274433 38704636 -1613529089 652139262
            -553652225 -1460668226 -1912865283 -1394609473</internalNodes>
          <leafValues>
            -2.6560792326927185e-01 2.5413224101066589e-01</leafValues></_>
        <_>
          <internalNodes>
            0 -1 526 -583273164 -549913068 -1124795012 -785322763
            -1661156104 -16777731 1291644159 -1191182337</internalNodes>
          <leafValues>
            -2.2686697542667389e-01 2.7455714344978333e-01</leafValues></_>
        <_>
          <internalNodes>
            0 -1 125 1596358395 -5046318 -1141132301 -4948109 1328834559
            -10061839 1475758075 -10201257</internalNodes>
          <leafValues>
            -2.2955623269081116e-01 2.5581929087638855e-01</leafValues></_>
        <_>
          <internalNodes>
            0 -1 524 -223352694 -683946905 -1263891294 -1339588438
            1076496396 -1893441639 -1205162866 -75497905</internalNodes>
          <leafValues>
            -2.1965758502483368e-01 2.6597985625267029e-01</leafValues></_>
        <_>
          <internalNodes>
            0 -1 316 -837787692 -23280259 -1756829699 770705752
            159661493 -2475027 -1116112147 792333312</internalNodes>
          <leafValues>
            -3.5603418946266174e-01 1.6695870459079742e-01</leafValues></_>
        <_>
          <internalNodes>
            0 -1 395 -69208459 280017849 -1824589699 1039662301
            -88214539 -57016899 -667493236 146799999</internalNodes>
          <leafValues>
            -2.4335707724094391e-01 2.3067130148410797e-01</leafValues></_>
        <_>
          <internalNodes>
            0 -1 440 406336693 2141977597 -162272131 -2360385 -889700355
            -648022081 -1912783363 720639092</internalNodes>
          <leafValues>
            -4.4191440939903259e-01 1.2119199335575104e-01</leafValues></_>
        <_>
          <internalNodes>
            0 -1 141 -824734560 227321738 -644083936 1974436368
            1547438556 1010625492 -750891742 -849348913</internalNodes>
          <leafValues>
            -2.6314377784729004e-01 2.0661616325378418e-01</leafValues></_>
        <_>
          <internalNodes>
            0 -1 269 -1674414219 -1076300079 -16797827 -1619558443
            -38511624 -1074340388 -537060933 -1438776031</internalNodes>
          <leafValues>
            -2.3656837642192841e-01 2.1593397855758667e-01</leafValues></_>
        <_>
          <internalNodes>
            0 -1 77 -1292164410 911669396 697732014 503185006 35677176
            818940548 -1453773432 52152014</internalNodes>
          <leafValues>
            -3.2153171300888062e-01 1.5860314667224884e-01</leafValues></_>
        <_>
          <internalNodes>
            0 -1 34 -28658992 2040429421 -1286315864 -1692625761
            1702714081 592454246 -37472259 1070429957</internalNodes>
          <leafValues>
            -3.1120932102203369e-01 1.6412179172039032e-01</leafValues></_>
        <_>
          <internalNodes>
            0 -1 396 714874268 2080368549 895047679 1474125485
            1002407081 -71404865 994375613 152569080</internalNodes>
          <leafValues>
            -4.7098121047019958e-01 1.1405546218156815e-01</leafValues></_>
        <_>
          <internalNodes>
            0 -1 223 -1901420688 -66008128 937419773 -552635024
            -1348778499 -1092927267 -1929410824 -865401279</internalNodes>
          <leafValues>
            -2.4106946587562561e-01 2.0776635408401489e-01</leafValues></_>
        <_>
          <internalNodes>
            0 -1 614 -925963097 -1258428738 -286275888 -1674427192
            -42063916 16663588 -285267808 -523239689</internalNodes>
          <leafValues>
            -2.1012318134307861e-01 2.3614443838596344e-01</leafValues></_>
        <_>
          <internalNodes>
            0 -1 110 2141144663 2142665018 -106990735 -209668304
            393356709 -1376292553 1671562804 1169184116</internalNodes>
          <leafValues>
            -4.6097218990325928e-01 1.0891333967447281e-01</leafValues></_>
        <_>
          <internalNodes>
            0 -1 86 -932516105 -277815301 536784671 132286207
            -2077210128 -382550155 -297308353 -541900729</internalNodes>
          <leafValues>
            -2.0365555584430695e-01 2.4171404540538788e-01</leafValues></_>
        <_>
          <internalNodes>
            0 -1 457 -294515696 -1872707045 1064897839 924945466
            -1166532492 -7578935 -393738132 -1439514829</internalNodes>
          <leafValues>
            -2.7641886472702026e-01 1.6876794397830963e-01</leafValues></_>
        <_>
          <internalNodes>
            0 -1 56 -822418746 84043394 -321208267 -1703393776
            1320738204 157611297 1420430472 1208974707</internalNodes>
          <leafValues>
            -2.6057574152946472e-01 1.8601219356060028e-01</leafValues></_>
        <_>
          <internalNodes>
            0 -1 139 -1571909830 -1714357270 758122425 -1273452988
            1898261252 1357992570 1673529954 1841776487</internalNodes>
          <leafValues>
            -3.4964746236801147e-01 1.3584505021572113e-01</leafValues></_>
        <_>
          <internalNodes>
            0 -1 475 540017756 534548477 1006558207 -1615839339
            -344440976 -1611846669 461192191 201326644</internalNodes>
          <leafValues>
            -5.8556383848190308e-01 7.8392945230007172e-02</leafValues></_>
        <_>
          <internalNodes>
            0 -1 409 -1060965072 473571629 -1177052161 -1073896393
            -470540356 -1078378563 -1095008264 -1358988030</internalNodes>
          <leafValues>
            -2.0976592600345612e-01 2.3506988584995270e-01</leafValues></_>
        <_>
          <internalNodes>
            0 -1 13 -926744592 -1253009926 -1797814331 317538128
            -1999962152 -1091957546 1331511035 2145219410</internalNodes>
          <leafValues>
            -2.6940071582794189e-01 1.8004502356052399e-01</leafValues></_>
        <_>
          <internalNodes>
            0 -1 523 -19137024 -1555654350 173672612 275233379
            1866694664 608372289 68534922 -1270689041</internalNodes>
          <leafValues>
            -2.6709604263305664e-01 1.8186807632446289e-01</leafValues></_>
        <_>
          <internalNodes>
            0 -1 264 363072800 -1174865420 333501399 534002301
            -561361348 -285414769 -1185431580 1228692840</internalNodes>
          <leafValues>
            -5.7334780693054199e-01 7.7867612242698669e-02</leafValues></_>
        <_>
          <internalNodes>
            0 -1 453 -194052880 269554805 -900533988 431482482
            -247480648 2090569726 -858003016 10477531</internalNodes>
          <leafValues>
            -3.0586242675781250e-01 1.4945210516452789e-01</leafValues></_>
        <_>
          <internalNodes>
            0 -1 16 1275822240 161622660 613483793 523379235 1560230618
            -1664262418 1374375096 1221845510</internalNodes>
          <leafValues>
            -2.8418731689453125e-01 1.7133417725563049e-01</leafValues></_>
        <_>
          <internalNodes>
            0 -1 100 -320936137 -1367680197 -1518141511 -432746610
            1902540145 -47782915 2100666496 -422055118</internalNodes>
          <leafValues>
            -2.5575509667396545e-01 1.8218830227851868e-01</leafValues></_>
        <_>
          <internalNodes>
            0 -1 578 -30756192 345150308 -2007980976 1974639232
            -931980159 -1671791072 -1533008868 8645911</internalNodes>
          <leafValues>
            -2.9484769701957703e-01 1.6242533922195435e-01</leafValues></_>
        <_>
          <internalNodes>
            0 -1 470 -2112078347 655906371 -406225445 -1342440549
            -1628933415 -134345778 183916735 674513981</internalNodes>
          <leafValues>
            -3.2806035876274109e-01 1.4417040348052979e-01</leafValues></_>
        <_>
          <internalNodes>
            0 -1 66 -1067275052 -1873641200 -362763010 -1626283823
            7629996 -75599831 -53583992 -307017966</internalNodes>
          <leafValues>
            -2.2777515649795532e-01 2.0622068643569946e-01</leafValues></_>
        <_>
          <internalNodes>
            0 -1 478 87833692 487728125 200671997 391544799 2086426101
            -1872969729 971845629 236454961</internalNodes>
          <leafValues>
            -4.4088289141654968e-01 1.0742671042680740e-01</leafValues></_>
        <_>
          <internalNodes>
            0 -1 559 -345248480 972167996 -1686212175 -1522749642
            2085519552 -1970093176 10789288 137359251</internalNodes>
          <leafValues>
            -2.6511639356613159e-01 1.8156851828098297e-01</leafValues></_></weakClassifiers></_>
    <!-- stage 7 -->
    <_>
      <maxWeakCount>40</maxWeakCount>
      <stageThreshold>-1.4967498779296875e+00</stageThreshold>
      <weakClassifiers>
        <_>
          <internalNodes>
            0 -1 94 -1 -13115505 -174074121 -135071886 -641228187
            -26153451 -533323 -526477</internalNodes>
          <leafValues>
            -4.3645116686820984e-01 1.5610560774803162e-01</leafValues></_>
        <_>
          <internalNodes>
            0 -1 265 2002122613 -539166724 -377627905 -3277833
            -142750723 -10503236 -69861377 -3343668</internalNodes>
          <leafValues>
            -3.1378600001335144e-01 2.0527887344360352e-01</leafValues></_>
        <_>
          <internalNodes>
            0 -1 18 -810876997 -542197246 -1073787945 -1076952576
            -54788097 -69214278 1877430271 -1318157</internalNodes>
          <leafValues>
            -1.7597077786922455e-01 3.5915094614028931e-01</leafValues></_>
        <_>
          <internalNodes>
            0 -1 379 -76031404 -550015461 -1728843975 -1080037614
            -360972388 -268994567 -331551508 -1431306517</internalNodes>
          <leafValues>
            -1.7727550864219666e-01 3.1862822175025940e-01</leafValues></_>
        <_>
          <internalNodes>
            0 -1 123 -1607685 -15826945 -594953 -137317358 1682404723
            1934766967 1697851185 1735619636</internalNodes>
          <leafValues>
            -3.9060968160629272e-01 1.4835105836391449e-01</leafValues></_>
        <_>
          <internalNodes>
            0 -1 254 -155525360 -614937643 -268869761 -1079732527
            -294252748 -125953 -378908744 -1884794848</internalNodes>
          <leafValues>
            -2.8251445293426514e-01 1.9589322805404663e-01</leafValues></_>
        <_>
          <internalNodes>
            0 -1 613 -419467403 -593891340 -285315403 -1398084684
            1291800053 -1127416081 -323003176 -924068105</internalNodes>
          <leafValues>
            -2.0264577865600586e-01 2.7155247330665588e-01</leafValues></_>
        <_>
          <internalNodes>
            0 -1 192 -1350897744 -1619723888 502575993 -371151433
            77857268 -3655308 2075528767 -807402480</internalNodes>
          <leafValues>
            -3.0221205949783325e-01 1.5909752249717712e-01</leafValues></_>
        <_>
          <internalNodes>
            0 -1 418 498892797 -1208955651 -98307 -1343258755 1453227965
            -17088517 -910339 -1348846303</internalNodes>
          <leafValues>
            -2.1732711791992188e-01 2.2515411674976349e-01</leafValues></_>
        <_>
          <internalNodes>
            0 -1 570 -922754510 -147468399 112200880 285919783 137627656
            -558908272 543095466 -22020513</internalNodes>
          <leafValues>
            -1.9644288718700409e-01 2.5339937210083008e-01</leafValues></_>
        <_>
          <internalNodes>
            0 -1 240 -251742192 -138469869 -401205987 -1246381133
            -1900203860 -522055633 -1945894260 72345385</internalNodes>
          <leafValues>
            -3.1407511234283447e-01 1.4344970881938934e-01</leafValues></_>
        <_>
          <internalNodes>
            0 -1 499 -1361052419 28113127 -2062080267 146316797
            1427748060 486402557 2130702520 14677275</internalNodes>
          <leafValues>
            -3.4841081500053406e-01 1.4893399178981781e-01</leafValues></_>
        <_>
          <internalNodes>
            0 -1 444 -790078115 1071446015 -17514497 -1111982081
            -1384506923 -4194337 -34075147 -1092210317</internalNodes>
          <leafValues>
            -2.1602210402488708e-01 2.2577287256717682e-01</leafValues></_>
        <_>
          <internalNodes>
            0 -1 22 -2006733654 -2127953782 -1919408880 -544904150
            501203404 -574742839 1371146490 -2008030197</internalNodes>
          <leafValues>
            -2.1812921762466431e-01 2.2130946815013885e-01</leafValues></_>
        <_>
          <internalNodes>
            0 -1 333 337560748 873526712 -679499491 -576066470 905817597
            880397036 787222815 149914879</internalNodes>
          <leafValues>
            -3.1585252285003662e-01 1.4034965634346008e-01</leafValues></_>
        <_>
          <internalNodes>
            0 -1 187 -1393544964 -1151584305 536887613 -1080406081
            1004878476 802696080 -283297411 1289486864</internalNodes>
          <leafValues>
            -4.6260184049606323e-01 1.0784045606851578e-01</leafValues></_>
        <_>
          <internalNodes>
            0 -1 313 -324900876 -814206977 -88608841 -1346990794
            1281633735 -973799681 -271241537 -1929703893</internalNodes>
          <leafValues>
            -2.0572364330291748e-01 2.2662468254566193e-01</leafValues></_>
        <_>
          <internalNodes>
            0 -1 356 471076197 -1097451608 -1177069577 1056716701
            -92505219 -1077242941 1869885149 788531456</internalNodes>
          <leafValues>
            -4.4056591391563416e-01 1.0439206659793854e-01</leafValues></_>
        <_>
          <internalNodes>
            0 -1 177 -408229050 -1058633948 -175682304 820111520
            1157592869 1055810977 1412892416 -1510770877</internalNodes>
          <leafValues>
            -3.4829416871070862e-01 1.2695820629596710e-01</leafValues></_>
        <_>
          <internalNodes>
            0 -1 411 -55251459 397622836 -2026315905 -1613365835
            -1143605314 -1079460929 -1105513028 -1351652603</internalNodes>
          <leafValues>
            -1.8062070012092590e-01 2.6005482673645020e-01</leafValues></_>
        <_>
          <internalNodes>
            0 -1 103 1003484040 -430640140 1125614887 -174484889
            -228550212 1934915284 1931958923 1645477251</internalNodes>
          <leafValues>
            -2.5299012660980225e-01 1.7778034508228302e-01</leafValues></_>
        <_>
          <internalNodes>
            0 -1 527 -455358948 -1229207585 -1128305506 -1129325801
            1963417868 606570247 -1202279890 -233572669</internalNodes>
          <leafValues>
            -2.2560106217861176e-01 1.9122163951396942e-01</leafValues></_>
        <_>
          <internalNodes>
            0 -1 281 -1364711628 -1081300528 -888311491 -1116915745
            -86240278 -617213547 1509436415 145493008</internalNodes>
          <leafValues>
            -4.6153014898300171e-01 9.9920153617858887e-02</leafValues></_>
        <_>
          <internalNodes>
            0 -1 32 -34157217 -1626217198 -1980214892 1609954228
            -1413430548 -1090483579 -542054408 -9088141</internalNodes>
          <leafValues>
            -2.0788230001926422e-01 2.0648080110549927e-01</leafValues></_>
        <_>
          <internalNodes>
            0 -1 279 17838420 994720668 1713012095 1060517684 402471929
            2075853685 1071396860 124914108</internalNodes>
          <leafValues>
            -4.1543567180633545e-01 1.0217622667551041e-01</leafValues></_>
        <_>
          <internalNodes>
            0 -1 253 -319103563 -810393859 804662135 108692738
            1286868149 -21815464 461767593 -604812429</internalNodes>
          <leafValues>
            -1.9798620045185089e-01 2.1990431845188141e-01</leafValues></_>
        <_>
          <internalNodes>
            0 -1 476 704332884 -607396993 -979381281 -100770308
            1071587324 401193837 -1141036194 -1170553820</internalNodes>
          <leafValues>
            -2.2788320481777191e-01 1.8768779933452606e-01</leafValues></_>
        <_>
          <internalNodes>
            0 -1 609 -889822200 361460674 648747056 874518108 -825999324
            -1610563549 1353983168 -800915950</internalNodes>
          <leafValues>
            -2.7411612868309021e-01 1.5196898579597473e-01</leafValues></_>
        <_>
          <internalNodes>
            0 -1 308 -366283824 -1864844315 -1110598785 -1077461024
            -189703683 -1091808603 946407191 -1409259676</internalNodes>
          <leafValues>
            -2.2754189372062683e-01 1.8733464181423187e-01</leafValues></_>
        <_>
          <internalNodes>
            0 -1 285 14964244 -36642969 664663743 -1226018305
            -1064938851 -71570758 -275285057 -1242808580</internalNodes>
          <leafValues>
            -3.4109127521514893e-01 1.2709875404834747e-01</leafValues></_>
        <_>
          <internalNodes>
            0 -1 28 -18891342 -1688529981 -946008819 568659626 -6734808
            537203085 2129159949 58676699</internalNodes>
          <leafValues>
            -2.8585550189018250e-01 1.5126863121986389e-01</leafValues></_>
        <_>
          <internalNodes>
            0 -1 534 -1977957230 -1737182812 -1463274667 -1408182710
            1690591268 440705392 1144082478 1214250287</internalNodes>
          <leafValues>
            -2.9532149434089661e-01 1.5027734637260437e-01</leafValues></_>
        <_>
          <internalNodes>
            0 -1 489 -430182880 -1187488650 -410242881 727215659
            1181582764 -1624749952 -1173321560 1801904363</internalNodes>
          <leafValues>
            -2.4632614850997925e-01 1.8549032509326935e-01</leafValues></_>
        <_>
          <internalNodes>
            0 -1 255 -2064067787 -577720323 -552904839 1435941336
            880020964 -407655435 1125218045 1295270960</internalNodes>
          <leafValues>
            -3.3425626158714294e-01 1.3688452541828156e-01</leafValues></_>
        <_>
          <internalNodes>
            0 -1 83 -559956234 -760031201 645265237 5271040 20193920
            -994613609 -1094228748 -159914206</internalNodes>
          <leafValues>
            -2.1142318844795227e-01 2.1507441997528076e-01</leafValues></_>
        <_>
          <internalNodes>
            0 -1 241 -429724688 1592411840 -1342441771 2013127904
            1853832632 -1077629441 -919195957 -1964280092</internalNodes>
          <leafValues>
            -2.0197345316410065e-01 2.2084303200244904e-01</leafValues></_>
        <_>
          <internalNodes>
            0 -1 446 -626364235 263675903 2146320383 263716831 -526343
            2144702335 -1380106849 -1343277773</internalNodes>
          <leafValues>
            -1.5083588659763336e-01 2.8591272234916687e-01</leafValues></_>
        <_>
          <internalNodes>
            0 -1 561 -167538094 2066870047 -21416197 2132966242
            -870667064 -615019025 -20469558 -13114682</internalNodes>
          <leafValues>
            -1.4128749072551727e-01 3.0591464042663574e-01</leafValues></_>
        <_>
          <internalNodes>
            0 -1 119 -537142049 455835454 -1649123340 -612697609
            1609919827 -444710989 -436520527 -162303977</internalNodes>
          <leafValues>
            -1.8205571174621582e-01 2.3805366456508636e-01</leafValues></_>
        <_>
          <internalNodes>
            0 -1 299 652623856 2121611125 -306802689 1574953912
            -1192214748 -51660514 2077646655 -84650703</internalNodes>
          <leafValues>
            -2.7422481775283813e-01 1.7035686969757080e-01</leafValues></_></weakClassifiers></_>
    <!-- stage 8 -->
    <_>
      <maxWeakCount>43</maxWeakCount>
      <stageThreshold>-1.4461454153060913e+00</stageThreshold>
      <weakClassifiers>
        <_>
          <internalNodes>
            0 -1 538 -4227073 351820921 901512671 289406399 -337384451
            -1090978133 -439448067 780351</internalNodes>
          <leafValues>
            -5.2620273828506470e-01 -4.4294826686382294e-02</leafValues></_>
        <_>
          <internalNodes>
            0 -1 10 -605884418 -9826680 -111911207 2009071920 -915759461
            -11622289 -643044613 1601395475</internalNodes>
          <leafValues>
            -3.0207785964012146e-01 1.8265369534492493e-01</leafValues></_>
        <_>
          <internalNodes>
            0 -1 5 -15540486 -11339344 -1091525668 1595013968 -636433160
            -74806208 -856638788 -552472112</internalNodes>
          <leafValues>
            -3.6761844158172607e-01 1.5205226838588715e-01</leafValues></_>
        <_>
          <internalNodes>
            0 -1 129 1602747354 527805776 -112888323 -35655676
            2079211507 2092972468 1952343551 1420063164</internalNodes>
          <leafValues>
            -3.2148125767707825e-01 1.7691315710544586e-01</leafValues></_>
        <_>
          <internalNodes>
            0 -1 481 -134226595 2044575121 -9571137 -1178603981
            -580023092 -1090663684 -253694934 -96994625</internalNodes>
          <leafValues>
            -1.2635335326194763e-01 3.6586949229240417e-01</leafValues></_>
        <_>
          <internalNodes>
            0 -1 521 -120086376 -112117737 -1460356040 430508561
            135072780 -13777362 550742186 -549193377</internalNodes>
          <leafValues>
            -2.0629778504371643e-01 2.3216260969638824e-01</leafValues></_>
        <_>
          <internalNodes>
            0 -1 371 68422964 -1107866123 -140093953 -492610 468981753
            -1077969923 -812351489 -1079375596</internalNodes>
          <leafValues>
            -3.0368104577064514e-01 1.3400295376777649e-01</leafValues></_>
        <_>
          <internalNodes>
            0 -1 106 -84221953 -218173477 -2013341707 -268501964
            1965545461 -1073747983 1180911359 -8961949</internalNodes>
          <leafValues>
            -1.6267436742782593e-01 2.5829350948333740e-01</leafValues></_>
        <_>
          <internalNodes>
            0 -1 8 -299177549 -1773626 -2083296297 -738263040 -539058177
            -1073741940 1877854975 -806358010</internalNodes>
          <leafValues>
            -1.3885752856731415e-01 3.0655571818351746e-01</leafValues></_>
        <_>
          <internalNodes>
            0 -1 122 -151593601 -34706370 2140831548 -3869445 1599568501
            -895341 -19562959 -8978829</internalNodes>
          <leafValues>
            -2.0966833829879761e-01 2.0651644468307495e-01</leafValues></_>
        <_>
          <internalNodes>
            0 -1 321 203427508 1029470557 -135888899 1071558645
            -1108333775 -321442633 2146331449 204998928</internalNodes>
          <leafValues>
            -4.4503113627433777e-01 1.0642516613006592e-01</leafValues></_>
        <_>
          <internalNodes>
            0 -1 441 -148717256 1392829856 -94580359 901566443
            1004403514 -1188263647 1892220158 6418431</internalNodes>
          <leafValues>
            -3.4011408686637878e-01 1.2291918694972992e-01</leafValues></_>
        <_>
          <internalNodes>
            0 -1 209 -586354703 -1947489398 -1952241904 -1253066478
            1582894847 -1935468593 -288395534 -864038954</internalNodes>
          <leafValues>
            -1.6969522833824158e-01 2.5397560000419617e-01</leafValues></_>
        <_>
          <internalNodes>
            0 -1 420 -1442307276 -537247923 -474628867 529743869
            -2331691 -1414574663 -100828053 -1364580320</internalNodes>
          <leafValues>
            -3.1992813944816589e-01 1.3365094363689423e-01</leafValues></_>
        <_>
          <internalNodes>
            0 -1 189 -86848553 -5005315 -4227 1570717663 -769644368
            -537110156 -1343852613 -812694255</internalNodes>
          <leafValues>
            -1.5246875584125519e-01 2.8111106157302856e-01</leafValues></_>
        <_>
          <internalNodes>
            0 -1 423 -792694288 -1310787624 -1751115876 -1078136300
            -1180338763 -1083615055 871895007 731907106</internalNodes>
          <leafValues>
            -2.6247829198837280e-01 1.5364642441272736e-01</leafValues></_>
        <_>
          <internalNodes>
            0 -1 528 -522723312 587399600 408034553 814089755 1078450332
            -1669175608 218037799 1138220755</internalNodes>
          <leafValues>
            -2.2948439419269562e-01 1.8254312872886658e-01</leafValues></_>
        <_>
          <internalNodes>
            0 -1 619 -335548417 343719670 -1652555909 -1796026712
            -2030173191 -528482482 -4630795 -1057242218</internalNodes>
          <leafValues>
            -1.7823623120784760e-01 2.2927568852901459e-01</leafValues></_>
        <_>
          <internalNodes>
            0 -1 426 -587804939 766788132 1437316095 -1623867457
            2109626869 -1107314703 -928486980 -1427419633</internalNodes>
          <leafValues>
            -1.6037786006927490e-01 2.4855028092861176e-01</leafValues></_>
        <_>
          <internalNodes>
            0 -1 208 -1435309067 -237412656 963916283 739390308
            -1823070425 -1074726473 -11180681 -422100361</internalNodes>
          <leafValues>
            -2.0096474885940552e-01 1.9647355377674103e-01</leafValues></_>
        <_>
          <internalNodes>
            0 -1 113 992155506 -1713835174 -577022605 2078862354
            604012442 1022568702 1902006270 1464095266</internalNodes>
          <leafValues>
            -3.5089647769927979e-01 1.0287455469369888e-01</leafValues></_>
        <_>
          <internalNodes>
            0 -1 130 -441976926 -1800411230 -957350597 -1079680000
            226307838 -1108406708 1186552570 -861154126</internalNodes>
          <leafValues>
            -1.6622526943683624e-01 2.4578592181205750e-01</leafValues></_>
        <_>
          <internalNodes>
            0 -1 428 -53051787 934853212 -1923338273 -138180 1733804021
            -1246471307 967919133 -1356302831</internalNodes>
          <leafValues>
            -2.1570082008838654e-01 1.8474061787128448e-01</leafValues></_>
        <_>
          <internalNodes>
            0 -1 607 -319304649 -545395440 -1090532299 825653420
            -934609780 -297796232 1761349326 -371503593</internalNodes>
          <leafValues>
            -1.3825775682926178e-01 2.8364539146423340e-01</leafValues></_>
        <_>
          <internalNodes>
            0 -1 322 -1364713515 -1167232291 -1350895619 -1076969988
            699383785 903567597 -1091228673 138151012</internalNodes>
          <leafValues>
            -4.0545019507408142e-01 1.0132737457752228e-01</leafValues></_>
        <_>
          <internalNodes>
            0 -1 338 -258540043 -606196237 -1850163205 524171908
            1004216251 -84246534 1044282553 -1354820233</internalNodes>
          <leafValues>
            -1.5544480085372925e-01 2.5045791268348694e-01</leafValues></_>
        <_>
          <internalNodes>
            0 -1 85 -289223114 -294173265 -554898510 -780102942
            -1427623632 -810555299 -621787664 -936127117</internalNodes>
          <leafValues>
            -2.4517516791820526e-01 1.5885172784328461e-01</leafValues></_>
        <_>
          <internalNodes>
            0 -1 137 -1090875760 -1217262941 -325047441 644649547
            2061467176 -2137319069 2111833467 1467723375</internalNodes>
          <leafValues>
            -2.4127943813800812e-01 1.6220618784427643e-01</leafValues></_>
        <_>
          <internalNodes>
            0 -1 266 -23300747 -22614419 -577665 -1074045675 1606241781
            -1076281348 -303606035 -1343277197</internalNodes>
          <leafValues>
            -1.8828856945037842e-01 2.0563167333602905e-01</leafValues></_>
        <_>
          <internalNodes>
            0 -1 505 -110432764 1536510547 -1358615906 814080677
            -219741692 1510226218 577355946 1915222298</internalNodes>
          <leafValues>
            -2.4581435322761536e-01 1.6213752329349518e-01</leafValues></_>
        <_>
          <internalNodes>
            0 -1 397 997194132 942150192 -181736491 683657693 1921839780
            741395769 -1098625560 12254906</internalNodes>
          <leafValues>
            -3.8587495684623718e-01 1.0428921133279800e-01</leafValues></_>
        <_>
          <internalNodes>
            0 -1 291 -55126603 -77975565 -16793793 -1140867907
            -1149600193 -21244257 -759877 -1370531837</internalNodes>
          <leafValues>
            -1.4935478568077087e-01 2.8688937425613403e-01</leafValues></_>
        <_>
          <internalNodes>
            0 -1 244 854861542 2071579514 -339664138 1408235999
            -53139490 -67131397 -68289541 -355602552</internalNodes>
          <leafValues>
            -2.3444901406764984e-01 1.7822091281414032e-01</leafValues></_>
        <_>
          <internalNodes>
            0 -1 302 761404932 1049930229 -1791165765 -1645396611
            -1571735948 -841482241 -327411783 242231332</internalNodes>
          <leafValues>
            -4.6510022878646851e-01 8.0158196389675140e-02</leafValues></_>
        <_>
          <internalNodes>
            0 -1 53 -309678884 -2032081344 828018584 -1679854240
            -1401180500 -1473311776 -1733070614 -826818349</internalNodes>
          <leafValues>
            -1.7465946078300476e-01 2.3226910829544067e-01</leafValues></_>
        <_>
          <internalNodes>
            0 -1 414 288890164 -1622134795 -94724417 -1150228651
            536639868 -550588875 -582547466 235405312</internalNodes>
          <leafValues>
            -4.4351774454116821e-01 9.3888245522975922e-02</leafValues></_>
        <_>
          <internalNodes>
            0 -1 309 -335483276 -1199253540 -331263009 777795313
            -1349756603 1023352565 1908369861 176179473</internalNodes>
          <leafValues>
            -3.0495083332061768e-01 1.1934449523687363e-01</leafValues></_>
        <_>
          <internalNodes>
            0 -1 325 -332355851 -1682010188 -348579923 -2049655043
            -1318643727 519569393 -881841217 -1429551271</internalNodes>
          <leafValues>
            -1.8155598640441895e-01 2.1514441072940826e-01</leafValues></_>
        <_>
          <internalNodes>
            0 -1 604 -858388878 1475494426 -63784641 -1622015484
            -1972206452 -1174661000 -1205756198 -1739388870</internalNodes>
          <leafValues>
            -2.1252317726612091e-01 1.8995876610279083e-01</leafValues></_>
        <_>
          <internalNodes>
            0 -1 575 -992748286 1897686640 848618658 502410874
            -865661924 149869588 181076412 1081602579</internalNodes>
          <leafValues>
            -2.3656283318996429e-01 1.6134272515773773e-01</leafValues></_>
        <_>
          <internalNodes>
            0 -1 282 -1356136484 -1635176559 -6428007 -1612972183
            -1947818306 -134588305 -1245369158 -1360326636</internalNodes>
          <leafValues>
            -1.9121617078781128e-01 2.0554187893867493e-01</leafValues></_>
        <_>
          <internalNodes>
            0 -1 398 117972444 -1124334691 773988287 -1078297643
            2135831500 -1160456823 2147241785 235282712</internalNodes>
          <leafValues>
            -3.9376610517501831e-01 1.0569605231285095e-01</leafValues></_>
        <_>
          <internalNodes>
            0 -1 183 608467540 1574369007 1308888735 -1117925896
            1578198784 563773616 1943095051 306249792</internalNodes>
          <leafValues>
            -3.8961863517761230e-01 9.5171123743057251e-02</leafValues></_></weakClassifiers></_>
    <!-- stage 9 -->
    <_>
      <maxWeakCount>48</maxWeakCount>
      <stageThreshold>-1.4251199960708618e+00</stageThreshold>
      <weakClassifiers>
        <_>
          <internalNodes>
            0 -1 620 -285212673 218028031 -1109990145 -1359303214
            -270550021 -1661079701 -1144018691 -1929380097</internalNodes>
          <leafValues>
            -4.7009602189064026e-01 -6.8130204454064369e-03</leafValues></_>
        <_>
          <internalNodes>
            0 -1 305 -170000385 -2297857 -16777283 -1342308417 -131105
            -1 -33554438 -1200614</internalNodes>
          <leafValues>
            -2.0546498894691467e-01 2.7309709787368774e-01</leafValues></_>
        <_>
          <internalNodes>
            0 -1 110 -134744577 -139001957 -133639 -40435724 1878844415
            -553779209 1944548847 2012739031</internalNodes>
          <leafValues>
            -1.7381496727466583e-01 2.8634944558143616e-01</leafValues></_>
        <_>
          <internalNodes>
            0 -1 382 -900733928 -8390820 -1359152429 -14558009
            -590373716 -12619522 9185452 889577471</internalNodes>
          <leafValues>
            -2.8862851858139038e-01 1.6674870252609253e-01</leafValues></_>
        <_>
          <internalNodes>
            0 -1 23 -872231686 -1625113054 -185317360 2108910928
            1349898715 -889538642 -1073525574 -536871237</internalNodes>
          <leafValues>
            -1.5020008385181427e-01 2.7050536870956421e-01</leafValues></_>
        <_>
          <internalNodes>
            0 -1 61 -272113889 -13602955 1878065149 -9373741 1595996036
            -13306499 -1350768900 -1615981</internalNodes>
          <leafValues>
            -1.9284681975841522e-01 2.2325342893600464e-01</leafValues></_>
        <_>
          <internalNodes>
            0 -1 390 -593176715 85728881 -1187054657 -42075051 -34537475
            -278555 1800937469 -1344588495</internalNodes>
          <leafValues>
            -1.5804773569107056e-01 2.5892296433448792e-01</leafValues></_>
        <_>
          <internalNodes>
            0 -1 136 -385156110 -1092180012 2101260799 1054945792
            -844198434 -1681941831 2061524735 1203205715</internalNodes>
          <leafValues>
            -2.3359675705432892e-01 1.9216424226760864e-01</leafValues></_>
        <_>
          <internalNodes>
            0 -1 126 -586254338 -547816976 -1512095341 -34390640
            1873038068 -7047438 533223789 -12294317</internalNodes>
          <leafValues>
            -2.4361760914325714e-01 1.5428069233894348e-01</leafValues></_>
        <_>
          <internalNodes>
            0 -1 301 -88067212 2077602813 -14350881 -1916986411
            -1548648684 1857076167 -93057253 -1370207743</internalNodes>
          <leafValues>
            -2.2917678952217102e-01 1.7065858840942383e-01</leafValues></_>
        <_>
          <internalNodes>
            0 -1 567 -596700112 1538295056 538462577 -1242791275
            -330803148 -892543974 -601565038 -597114758</internalNodes>
          <leafValues>
            -3.2614317536354065e-01 1.0227411240339279e-01</leafValues></_>
        <_>
          <internalNodes>
            0 -1 404 -51383216 2356813 -1550343158 5438996 -764466504
            1090347513 874906660 542368310</internalNodes>
          <leafValues>
            -3.6349898576736450e-01 1.2028414756059647e-01</leafValues></_>
        <_>
          <internalNodes>
            0 -1 222 44199286 -1143688828 -305758761 498807281
            -2004352139 -286863427 -100843651 -925348587</internalNodes>
          <leafValues>
            -2.6026356220245361e-01 1.3123369216918945e-01</leafValues></_>
        <_>
          <internalNodes>
            0 -1 331 -1251967691 -1084737867 -541305347 -1124680835
            -352817155 -4435 -542359587 -1467339499</internalNodes>
          <leafValues>
            -2.0037196576595306e-01 1.8113937973976135e-01</leafValues></_>
        <_>
          <internalNodes>
            0 -1 118 -97845454 1339606615 -211485761 1844328433
            1562401014 -789839119 994379119 1909806673</internalNodes>
          <leafValues>
            -2.6324295997619629e-01 1.4024595916271210e-01</leafValues></_>
        <_>
          <internalNodes>
            0 -1 226 -324273294 -2064990592 740267440 1330757280
            1141457914 1155196098 -138424601 -997726574</internalNodes>
          <leafValues>
            -1.9487231969833374e-01 1.8428781628608704e-01</leafValues></_>
        <_>
          <internalNodes>
            0 -1 425 -396563075 431695413 398278007 -1611059531
            -1246169155 -93472769 -1414770788 -1409328613</internalNodes>
          <leafValues>
            -1.2998586893081665e-01 2.6610994338989258e-01</leafValues></_>
        <_>
          <internalNodes>
            0 -1 590 -2035028995 150658974 -1436918539 718852702
            1021282989 279691595 272592041 1221313908</internalNodes>
          <leafValues>
            -3.1386908888816833e-01 1.2042516469955444e-01</leafValues></_>
        <_>
          <internalNodes>
            0 -1 422 825402532 355767412 936876031 -1650739683
            -107997975 737211857 1711541467 53444815</internalNodes>
          <leafValues>
            -2.5362756848335266e-01 1.3917963206768036e-01</leafValues></_>
        <_>
          <internalNodes>
            0 -1 557 -353238528 1999957889 476619417 287908028
            1562711044 1596197179 205567570 1396951383</internalNodes>
          <leafValues>
            -2.5330099463462830e-01 1.5066738426685333e-01</leafValues></_>
        <_>
          <internalNodes>
            0 -1 471 -453313227 -810115212 -1208107457 -1648361881
            -545433155 -1393115203 -29605277 -1944043231</internalNodes>
          <leafValues>
            -1.8097829818725586e-01 1.9447128474712372e-01</leafValues></_>
        <_>
          <internalNodes>
            0 -1 191 -1087898731 2136927004 2065647583 -134447656
            1556496181 -34488883 -1903814188 -661371612</internalNodes>
          <leafValues>
            -2.4877819418907166e-01 1.4065794646739960e-01</leafValues></_>
        <_>
          <internalNodes>
            0 -1 388 -775422507 1343287285 1030733119 -2116039745
            -572665924 -774426695 872218824 166715023</internalNodes>
          <leafValues>
            -1.6150188446044922e-01 2.2867251932621002e-01</leafValues></_>
        <_>
          <internalNodes>
            0 -1 78 -1562136617 -2132395066 -1083303278 2091155810
            453534868 -751539228 -1247341632 -1057489853</internalNodes>
          <leafValues>
            -1.8807913362979889e-01 1.8588724732398987e-01</leafValues></_>
        <_>
          <internalNodes>
            0 -1 464 -431000492 453383955 994713467 -1289915940
            1167258280 -562236473 -1370822580 -1594688330</internalNodes>
          <leafValues>
            -2.0473422110080719e-01 1.7269779741764069e-01</leafValues></_>
        <_>
          <internalNodes>
            0 -1 373 -1112851408 2072409276 -755869701 -183043075
            469712821 -455757 1053129215 255540249</internalNodes>
          <leafValues>
            -2.0098042488098145e-01 1.7295217514038086e-01</leafValues></_>
        <_>
          <internalNodes>
            0 -1 366 68170436 -1142096783 -639666690 -1886770116
            -1059557924 1787292415 1338970419 -1912072120</internalNodes>
          <leafValues>
            -3.8479444384574890e-01 7.9055659472942352e-02</leafValues></_>
        <_>
          <internalNodes>
            0 -1 320 -892858508 1008208784 -1356901409 1320684412
            -1373623179 -1293128911 779488048 202375732</internalNodes>
          <leafValues>
            -5.0086444616317749e-01 7.0844754576683044e-02</leafValues></_>
        <_>
          <internalNodes>
            0 -1 36 -892943358 -544945016 195168568 2001937269
            -1929518919 -836181816 424889417 2038163763</internalNodes>
          <leafValues>
            -2.0219501852989197e-01 1.7132297158241272e-01</leafValues></_>
        <_>
          <internalNodes>
            0 -1 401 -865173228 704951355 -1483130305 31796008
            2070312824 -1430893569 975706680 -1439007661</internalNodes>
          <leafValues>
            -2.3201420903205872e-01 1.4973299205303192e-01</leafValues></_>
        <_>
          <internalNodes>
            0 -1 584 -414191835 135324212 -556637140 -925713876
            -1401073295 -1661781515 -187275248 -2131231053</internalNodes>
          <leafValues>
            -2.8232434391975403e-01 1.2229432165622711e-01</leafValues></_>
        <_>
          <internalNodes>
            0 -1 45 -27079264 -250429120 1062470656 -2119973120
            2056270087 573590162 -780595968 1682129763</internalNodes>
          <leafValues>
            -3.6737331748008728e-01 9.2180341482162476e-02</leafValues></_>
        <_>
          <internalNodes>
            0 -1 148 -670825676 458367172 -548462796 681623648
            -998025803 -1132520536 -401248277 672097093</internalNodes>
          <leafValues>
            -2.5864693522453308e-01 1.3188493251800537e-01</leafValues></_>
        <_>
          <internalNodes>
            0 -1 235 -118294184 1441930774 -121079910 555889971
            -1222402447 -658546697 1027083469 -99125669</internalNodes>
          <leafValues>
            -1.6185063123703003e-01 2.0973810553550720e-01</leafValues></_>
        <_>
          <internalNodes>
            0 -1 377 670309372 930889553 326923195 413728529 924990137
            1810827545 931471097 83890960</internalNodes>
          <leafValues>
            -5.8369970321655273e-01 5.2097197622060776e-02</leafValues></_>
        <_>
          <internalNodes>
            0 -1 545 -385949148 410763302 -1271482194 10925608
            2116763906 1231438085 1121221282 -256705705</internalNodes>
          <leafValues>
            -2.8540396690368652e-01 1.1949478089809418e-01</leafValues></_>
        <_>
          <internalNodes>
            0 -1 251 -1845360912 -1601329012 -1479131761 -1644313884
            -1339019360 1988416450 958475866 206308360</internalNodes>
          <leafValues>
            -2.7308785915374756e-01 1.3553939759731293e-01</leafValues></_>
        <_>
          <internalNodes>
            0 -1 14 182065866 2147062551 1318801789 619729809
            -1955017136 -1398895924 382262493 -1410042923</internalNodes>
          <leafValues>
            -2.6307505369186401e-01 1.3599783182144165e-01</leafValues></_>
        <_>
          <internalNodes>
            0 -1 501 -2060135244 1572617364 -1459725633 -1614808403
            -1128716023 -1074274883 1056377246 -1369483929</internalNodes>
          <leafValues>
            -1.8240161240100861e-01 1.9468502700328827e-01</leafValues></_>
        <_>
          <internalNodes>
            0 -1 495 -890247514 -1060732332 -1234201953 -2124106026
            1245326068 301889696 -597634460 590603335</internalNodes>
          <leafValues>
            -2.3403412103652954e-01 1.4799217879772186e-01</leafValues></_>
        <_>
          <internalNodes>
            0 -1 592 -227376690 -1705925645 -1267725258 -593217242
            -649050930 -41959580 -139399698 -8661693</internalNodes>
          <leafValues>
            -1.4026397466659546e-01 2.4363306164741516e-01</leafValues></_>
        <_>
          <internalNodes>
            0 -1 229 1814355784 1430033307 -1882652267 -73469264
            1020850104 -877800564 -1319706664 151522456</internalNodes>
          <leafValues>
            -4.9472555518150330e-01 6.7869685590267181e-02</leafValues></_>
        <_>
          <internalNodes>
            0 -1 227 -305218552 95123010 -371391630 1412698053
            1720401021 208850141 -187747744 -1931747678</internalNodes>
          <leafValues>
            -2.0624209940433502e-01 1.6003403067588806e-01</leafValues></_>
        <_>
          <internalNodes>
            0 -1 7 1700769597 1429539770 -576200943 -546082091
            1104254207 -1657774820 900522974 1209005451</internalNodes>
          <leafValues>
            -1.3032977283000946e-01 2.6009503006935120e-01</leafValues></_>
        <_>
          <internalNodes>
            0 -1 293 -110213900 1844612069 -1885431173 601237048
            1893541060 -571986532 1047988953 -353672189</internalNodes>
          <leafValues>
            -1.8384718894958496e-01 1.8939776718616486e-01</leafValues></_>
        <_>
          <internalNodes>
            0 -1 451 -281293787 -2005426591 1499664932 814544317
            771829934 405838192 -388089622 1748106777</internalNodes>
          <leafValues>
            -2.4280980229377747e-01 1.4029303193092346e-01</leafValues></_>
        <_>
          <internalNodes>
            0 -1 477 723000132 953071479 831543769 832386559 2023240632
            1068084473 1568149977 335813140</internalNodes>
          <leafValues>
            -5.8244991302490234e-01 5.7513225823640823e-02</leafValues></_>
        <_>
          <internalNodes>
            0 -1 171 -588074288 -1294460364 -274483540 721550122
            810497837 365178597 -77251608 122545936</internalNodes>
          <leafValues>
            -2.9989376664161682e-01 1.1255644261837006e-01</leafValues></_></weakClassifiers></_>
    <!-- stage 10 -->
    <_>
      <maxWeakCount>53</maxWeakCount>
      <stageThreshold>-1.4291807413101196e+00</stageThreshold>
      <weakClassifiers>
        <_>
          <internalNodes>
            0 -1 88 -1 -6291681 -578561537 -4730045 -128992265
            -621814571 -35153153 -524813</internalNodes>
          <leafValues>
            -3.5567927360534668e-01 2.5086560845375061e-01</leafValues></_>
        <_>
          <internalNodes>
            0 -1 479 -48245732 2064248863 994253883 -149190122
            -723777528 -359700460 -932443126 -88081284</internalNodes>
          <leafValues>
            -2.5347834825515747e-01 1.8710498511791229e-01</leafValues></_>
        <_>
          <internalNodes>
            0 -1 542 -1577582849 813554673 1010223869 429908831
            1432338397 79682510 -188764931 16774907</internalNodes>
          <leafValues>
            -2.7110534906387329e-01 1.6935680806636810e-01</leafValues></_>
        <_>
          <internalNodes>
            0 -1 1 -682434574 -69176560 -1744248427 -147467104
            2016424170 -340080496 1807915998 -14561485</internalNodes>
          <leafValues>
            -2.0233885943889618e-01 2.0218329131603241e-01</leafValues></_>
        <_>
          <internalNodes>
            0 -1 579 -80746690 -41644175 -493378155 -1267931450
            -184761029 -52044195 -1468838849 -321002481</internalNodes>
          <leafValues>
            -1.5026651322841644e-01 2.5212559103965759e-01</leafValues></_>
        <_>
          <internalNodes>
            0 -1 314 -152113419 -1062913 -1921016707 -12927180
            1293954557 -273018881 -941016129 -54213</internalNodes>
          <leafValues>
            -1.4226363599300385e-01 2.8890821337699890e-01</leafValues></_>
        <_>
          <internalNodes>
            0 -1 435 -386910987 -235683987 -1678787585 999194387
            -1151057991 -1077936657 -288325633 -1414635721</internalNodes>
          <leafValues>
            -1.6662134230136871e-01 2.3370465636253357e-01</leafValues></_>
        <_>
          <internalNodes>
            0 -1 496 -51329196 -540013136 972387453 -181341232
            -1988603923 -21071619 -1391911491 134225920</internalNodes>
          <leafValues>
            -3.5734266042709351e-01 9.8527982831001282e-02</leafValues></_>
        <_>
          <internalNodes>
            0 -1 175 1507917808 -9411846 1608499195 966797088 1584409072
            1004624441 2135326203 1924626263</internalNodes>
          <leafValues>
            -2.8326612710952759e-01 1.3324089348316193e-01</leafValues></_>
        <_>
          <internalNodes>
            0 -1 306 1865639456 -1084314146 -347351713 -671877131
            -607138899 -893920873 -1074179 -858199048</internalNodes>
          <leafValues>
            -2.6750162243843079e-01 1.3110353052616119e-01</leafValues></_>
        <_>
          <internalNodes>
            0 -1 303 -1909281675 -1933394859 -310399233 -1881168555
            1753011345 -23353603 -21146753 -1901180411</internalNodes>
          <leafValues>
            -1.7786604166030884e-01 1.8893808126449585e-01</leafValues></_>
        <_>
          <internalNodes>
            0 -1 288 303306324 806655540 -1796850729 -1350723077
            -169361923 498451901 712785469 652071140</internalNodes>
          <leafValues>
            -3.0938714742660522e-01 1.0581040382385254e-01</leafValues></_>
        <_>
          <internalNodes>
            0 -1 6 1286243214 159384488 1902051763 1373049650 1267708826
            -1983195270 231525578 15160514</internalNodes>
          <leafValues>
            -2.4572098255157471e-01 1.3517382740974426e-01</leafValues></_>
        <_>
          <internalNodes>
            0 -1 150 -1233981739 -761479587 -1439171137 530092761
            -934003024 -187007052 775954350 1263494150</internalNodes>
          <leafValues>
            -1.9012375175952911e-01 1.8127164244651794e-01</leafValues></_>
        <_>
          <internalNodes>
            0 -1 116 -4261953 -137473537 -1122052167 -228672658
            -1300618912 -1967402363 594957888 -202128265</internalNodes>
          <leafValues>
            -2.2001759707927704e-01 1.5494237840175629e-01</leafValues></_>
        <_>
          <internalNodes>
            0 -1 158 -1493270698 -606058042 -1814096910 -1216136544
            -1578604088 -13484059 -268540450 -809220800</internalNodes>
          <leafValues>
            -2.0391836762428284e-01 1.6658650338649750e-01</leafValues></_>
        <_>
          <internalNodes>
            0 -1 569 -565457790 1319075874 -2009812840 272013014
            -1173420280 796067332 -320558358 -214698681</internalNodes>
          <leafValues>
            -1.7141224443912506e-01 2.0384150743484497e-01</leafValues></_>
        <_>
          <internalNodes>
            0 -1 574 -51190768 -779091952 -1667958348 -1686337504
            1210158220 -330412779 258346238 190010699</internalNodes>
          <leafValues>
            -2.0480558276176453e-01 1.6203318536281586e-01</leafValues></_>
        <_>
          <internalNodes>
            0 -1 20 -286594157 -763432062 -951136987 -460260352
            -783674013 96314229 818220386 1707827799</internalNodes>
          <leafValues>
            -2.5166583061218262e-01 1.2439721822738647e-01</leafValues></_>
        <_>
          <internalNodes>
            0 -1 237 -548230850 -1238057263 -115916911 -282050572
            -1447197200 -1696802887 -549628417 -815135468</internalNodes>
          <leafValues>
            -1.8852698802947998e-01 1.7530044913291931e-01</leafValues></_>
        <_>
          <internalNodes>
            0 -1 615 -327761369 1085127470 -1656947297 -2133299206
            -438416457 1559250683 -625409664 -1064834345</internalNodes>
          <leafValues>
            -2.0524224638938904e-01 1.6129368543624878e-01</leafValues></_>
        <_>
          <internalNodes>
            0 -1 518 1850715138 1599419395 287486713 957952130 807241868
            734105655 538427599 1292890644</internalNodes>
          <leafValues>
            -1.8868549168109894e-01 1.7155362665653229e-01</leafValues></_>
        <_>
          <internalNodes>
            0 -1 546 -10039502 -1825554683 -1632054761 -167892936
            -792581452 -861558105 537030363 1289186075</internalNodes>
          <leafValues>
            -1.8811097741127014e-01 1.6879118978977203e-01</leafValues></_>
        <_>
          <internalNodes>
            0 -1 484 -2005123883 1608971615 -103817665 -1157705810
            -1359650823 -1129782387 -1092661795 678955312</internalNodes>
          <leafValues>
            -3.5193249583244324e-01 9.8455362021923065e-02</leafValues></_>
        <_>
          <internalNodes>
            0 -1 351 -426443803 2011901887 1048389631 1836971479
            -159430732 -131467 -1476626307 -1563740393</internalNodes>
          <leafValues>
            -1.5638433396816254e-01 2.0621946454048157e-01</leafValues></_>
        <_>
          <internalNodes>
            0 -1 168 4194656 -1427571321 1624201684 1608020928 275255824
            -1583022636 1811831033 733230928</internalNodes>
          <leafValues>
            -5.0862360000610352e-01 6.4594656229019165e-02</leafValues></_>
        <_>
          <internalNodes>
            0 -1 360 616586608 -891437084 -674859561 -1929518179
            2144365933 -1079162076 1878463290 236979968</internalNodes>
          <leafValues>
            -3.6337378621101379e-01 8.2307256758213043e-02</leafValues></_>
        <_>
          <internalNodes>
            0 -1 472 -319103499 -319162403 -1375748449 -1658570971
            -25534533 -805404929 1250234044 -1441054181</internalNodes>
          <leafValues>
            -1.3116745650768280e-01 2.4160508811473846e-01</leafValues></_>
        <_>
          <internalNodes>
            0 -1 599 -2105632732 -1840241486 -1166352567 278458264
            -1062397648 -1650580548 -2011308868 -1934433242</internalNodes>
          <leafValues>
            -2.2248974442481995e-01 1.4213511347770691e-01</leafValues></_>
        <_>
          <internalNodes>
            0 -1 185 2104728531 -21517477 -1673523943 -1994184135
            -639518256 -650631824 1777110779 -713844177</internalNodes>
          <leafValues>
            -1.2334865331649780e-01 2.5272917747497559e-01</leafValues></_>
        <_>
          <internalNodes>
            0 -1 194 1790064415 2031238107 1979276665 486603111
            -1844357515 -38022719 1387810992 1565545552</internalNodes>
          <leafValues>
            -3.0742165446281433e-01 1.0093359649181366e-01</leafValues></_>
        <_>
          <internalNodes>
            0 -1 260 -103110896 -1640617440 -819454851 -1358587103
            -89284572 -1537309079 1783670972 142340537</internalNodes>
          <leafValues>
            -2.2958841919898987e-01 1.3696546852588654e-01</leafValues></_>
        <_>
          <internalNodes>
            0 -1 410 -310445516 923833941 -269208003 -1615479207
            -38862864 1878293983 -1650631876 -1614850547</internalNodes>
          <leafValues>
            -1.7001569271087646e-01 1.8613032996654510e-01</leafValues></_>
        <_>
          <internalNodes>
            0 -1 540 1688987760 8532254 -878203146 14614349 -902854168
            79476206 -1227944576 508683</internalNodes>
          <leafValues>
            -4.1133603453636169e-01 7.1701250970363617e-02</leafValues></_>
        <_>
          <internalNodes>
            0 -1 310 -702088715 1325047036 -1930561 -1640186207
            -1095467204 1006030799 -641720528 -629453301</internalNodes>
          <leafValues>
            -1.5231095254421234e-01 2.0925316214561462e-01</leafValues></_>
        <_>
          <internalNodes>
            0 -1 242 -274006039 -1028787358 1439579184 1288781136
            -953999367 -991989810 1509375729 -959973691</internalNodes>
          <leafValues>
            -1.6515330970287323e-01 2.0080411434173584e-01</leafValues></_>
        <_>
          <internalNodes>
            0 -1 68 224795446 -13346540 -616113701 -587154685
            -1744528460 -361856884 533215900 1829787619</internalNodes>
          <leafValues>
            -2.4610967934131622e-01 1.3030570745468140e-01</leafValues></_>
        <_>
          <internalNodes>
            0 -1 193 772451890 -1765067944 1906452789 -1143884869
            227314615 -2013492810 1630668911 -855818171</internalNodes>
          <leafValues>
            -1.8510577082633972e-01 1.6973806917667389e-01</leafValues></_>
        <_>
          <internalNodes>
            0 -1 140 -1899849712 177791552 -889583755 1562202705
            -1575670388 -628467231 -2088493848 143608634</internalNodes>
          <leafValues>
            -2.5573119521141052e-01 1.2523344159126282e-01</leafValues></_>
        <_>
          <internalNodes>
            0 -1 552 -857483905 2139061470 1862242418 428010166
            2018122888 2087921295 845859492 -260579614</internalNodes>
          <leafValues>
            -1.5199376642704010e-01 2.1434733271598816e-01</leafValues></_>
        <_>
          <internalNodes>
            0 -1 15 249303896 -68385961 43301053 2058729181 -659793200
            -1379360310 -2001749411 1561090900</internalNodes>
          <leafValues>
            -4.0088859200477600e-01 8.4034927189350128e-02</leafValues></_>
        <_>
          <internalNodes>
            0 -1 312 -1741128363 -704860940 -1085146193 -1386406563
            -305290412 -34742023 -151954089 994861104</internalNodes>
          <leafValues>
            -2.7800750732421875e-01 1.1175882816314697e-01</leafValues></_>
        <_>
          <internalNodes>
            0 -1 531 -1355636464 764817424 -1239512518 1026115722
            -1061284072 967221157 -924274806 1306727474</internalNodes>
          <leafValues>
            -2.4661782383918762e-01 1.3577520847320557e-01</leafValues></_>
        <_>
          <internalNodes>
            0 -1 368 1145788052 739942148 601626884 -1216886770
            -374554696 1214276597 1112083596 225426478</internalNodes>
          <leafValues>
            -2.3335433006286621e-01 1.4333888888359070e-01</leafValues></_>
        <_>
          <internalNodes>
            0 -1 84 -319623424 -1399736745 -1231368324 745834222
            333709633 -1108120816 -1690282752 -1001958141</internalNodes>
          <leafValues>
            -3.0629691481590271e-01 1.0646934807300568e-01</leafValues></_>
        <_>
          <internalNodes>
            0 -1 91 -1185219885 1002438645 -70513 1164654215 -461107536
            -54890628 1865743103 -49298109</internalNodes>
          <leafValues>
            -1.2282156944274902e-01 2.5876164436340332e-01</leafValues></_>
        <_>
          <internalNodes>
            0 -1 508 -861486836 -1541884507 -509531128 -1878546780
            -502511060 540086314 -1467815258 1682699590</internalNodes>
          <leafValues>
            -3.0897268652915955e-01 1.0751707851886749e-01</leafValues></_>
        <_>
          <internalNodes>
            0 -1 161 -930967085 -1631617424 1811620799 2144810144
            -672414211 -546381871 282053118 -1980008745</internalNodes>
          <leafValues>
            -1.3464224338531494e-01 2.4710792303085327e-01</leafValues></_>
        <_>
          <internalNodes>
            0 -1 512 442118260 999707613 87235071 1004806108 928922869
            201018356 777660124 285216664</internalNodes>
          <leafValues>
            -4.6055230498313904e-01 7.0622779428958893e-02</leafValues></_>
        <_>
          <internalNodes>
            0 -1 365 -1741783231 -1647822882 -926515236 980205407
            -67274387 -235795796 -1258918925 -1412807566</internalNodes>
          <leafValues>
            -1.8533298373222351e-01 1.7433266341686249e-01</leafValues></_>
        <_>
          <internalNodes>
            0 -1 151 -993533658 69777254 2063166237 1893767772
            -1584917888 1010299240 1499680921 -2080934569</internalNodes>
          <leafValues>
            -2.0846877992153168e-01 1.6227801144123077e-01</leafValues></_>
        <_>
          <internalNodes>
            0 -1 73 -750350858 -21871640 1685275032 -648771278 175641776
            -1939970093 -722071151 -268188542</internalNodes>
          <leafValues>
            -1.6766293346881866e-01 1.9710925221443176e-01</leafValues></_>
        <_>
          <internalNodes>
            0 -1 246 206585360 981791474 -1683088653 -1587770627
            1019817364 1063873800 -72003320 592970240</internalNodes>
          <leafValues>
            -4.0534734725952148e-01 7.8854948282241821e-02</leafValues></_></weakClassifiers></_>
    <!-- stage 11 -->
    <_>
      <maxWeakCount>58</maxWeakCount>
      <stageThreshold>-1.3984352350234985e+00</stageThreshold>
      <weakClassifiers>
        <_>
          <internalNodes>
            0 -1 99 -1 -2100281 -1782599457 -15533294 -399139372
            -637122091 -342368267 -526477</internalNodes>
          <leafValues>
            -4.1124346852302551e-01 3.8348946720361710e-02</leafValues></_>
        <_>
          <internalNodes>
            0 -1 588 2012696319 1040143321 -247988229 398445815
            -1445987329 955495333 -441987123 1626073087</internalNodes>
          <leafValues>
            -2.1106703579425812e-01 2.0531667768955231e-01</leafValues></_>
        <_>
          <internalNodes>
            0 -1 456 -555746300 -12715668 -1558526017 -1077021873
            -1964035928 -73410041 3975308 83349595</internalNodes>
          <leafValues>
            -2.8278931975364685e-01 1.3983170688152313e-01</leafValues></_>
        <_>
          <internalNodes>
            0 -1 332 -170003457 -72558374 -626273957 -474032201
            -370557987 -1416052088 -1574404 -290647528</internalNodes>
          <leafValues>
            -2.3917764425277710e-01 1.5800826251506805e-01</leafValues></_>
        <_>
          <internalNodes>
            0 -1 205 -19923734 -1007703936 -422106576 1441005538
            770418171 -1966737460 -197774877 -990916117</internalNodes>
          <leafValues>
            -1.2640424072742462e-01 2.6609686017036438e-01</leafValues></_>
        <_>
          <internalNodes>
            0 -1 294 -464198724 -1138454535 -1557513861 -1379260890
            1545078416 2080275903 -872730961 1878985738</internalNodes>
          <leafValues>
            -1.7826223373413086e-01 1.9490005075931549e-01</leafValues></_>
        <_>
          <internalNodes>
            0 -1 519 -732462974 2142732212 329798515 1408751745
            -790426488 -1092682631 218024638 460310154</internalNodes>
          <leafValues>
            -1.8493689596652985e-01 1.9267377257347107e-01</leafValues></_>
        <_>
          <internalNodes>
            0 -1 162 -1366650928 -1821186184 -875688003 -1981252080
            -1184493681 -285740354 1178995598 1282883668</internalNodes>
          <leafValues>
            -2.5835603475570679e-01 1.2501719594001770e-01</leafValues></_>
        <_>
          <internalNodes>
            0 -1 455 446430328 79101520 -234054436 549240040 1971008764
            75101917 1893096700 6610428</internalNodes>
          <leafValues>
            -5.1256656646728516e-01 6.8401157855987549e-02</leafValues></_>
        <_>
          <internalNodes>
            0 -1 286 8388612 1767901951 -2064304650 2079626230 -6603036
            -1314325975 -69249076 166989448</internalNodes>
          <leafValues>
            -4.9512976408004761e-01 6.2293566763401031e-02</leafValues></_>
        <_>
          <internalNodes>
            0 -1 421 -587274443 -419641883 -403489283 -1889555181
            -269656071 -37888001 -743950471 -1434562763</internalNodes>
          <leafValues>
            -1.7785874009132385e-01 1.8267039954662323e-01</leafValues></_>
        <_>
          <internalNodes>
            0 -1 196 -458850986 -34670892 998120304 1039938144
            -504492081 -22061107 1609838541 -1618000801</internalNodes>
          <leafValues>
            -1.6036279499530792e-01 1.9534075260162354e-01</leafValues></_>
        <_>
          <internalNodes>
            0 -1 596 -933883376 -148356092 296878783 891332644
            -1609946984 -353469730 235416826 -1977397738</internalNodes>
          <leafValues>
            -2.2443588078022003e-01 1.4710965752601624e-01</leafValues></_>
        <_>
          <internalNodes>
            0 -1 392 153887348 1442117624 -220739619 1065149824
            1967928565 -71403527 723810461 234886400</internalNodes>
          <leafValues>
            -4.7811311483383179e-01 5.2043672651052475e-02</leafValues></_>
        <_>
          <internalNodes>
            0 -1 143 1232014986 -233328228 -373066753 -142479375
            -2062162656 1218373274 -470435649 -587093087</internalNodes>
          <leafValues>
            -2.1398724615573883e-01 1.4263680577278137e-01</leafValues></_>
        <_>
          <internalNodes>
            0 -1 204 441335828 -1835753748 -1645363917 -1514157683
            -405981187 877678738 2135910027 125042429</internalNodes>
          <leafValues>
            -2.4240541458129883e-01 1.2442715466022491e-01</leafValues></_>
        <_>
          <internalNodes>
            0 -1 96 -827412961 -497884799 -1726824203 -1933258682
            1723872224 -367342152 853673968 -813214672</internalNodes>
          <leafValues>
            -2.4791227281093597e-01 1.2416920065879822e-01</leafValues></_>
        <_>
          <internalNodes>
            0 -1 487 699145556 -1147104931 -1282716707 1037221267
            -1450660868 -1365294369 -1109823747 138413108</internalNodes>
          <leafValues>
            -5.0246518850326538e-01 5.1768627017736435e-02</leafValues></_>
        <_>
          <internalNodes>
            0 -1 44 -664354814 -2060710265 330368776 -1250753280
            1555300537 43530096 1476855883 1294432067</internalNodes>
          <leafValues>
            -2.4738603830337524e-01 1.2044720351696014e-01</leafValues></_>
        <_>
          <internalNodes>
            0 -1 277 -757679787 -1007354507 -1384744993 1135739519
            -2054027984 -1367376137 -1363319299 -1409596041</internalNodes>
          <leafValues>
            -1.5176178514957428e-01 2.0245204865932465e-01</leafValues></_>
        <_>
          <internalNodes>
            0 -1 554 -25165858 1362345766 -1298919368 805854192
            -700197374 1801469253 1984397564 -261890217</internalNodes>
          <leafValues>
